Language model created by QuickLM on Fri Feb 19 14:52:33 EST 2010
Copyright (c) 1996-2010 Carnegie Mellon University and Alexander I. Rudnicky

The model is in standard ARPA format, designed by Doug Paul while he was at MITRE.

The code that was used to produce this language model is available in Open Source.
Please visit http://www.speech.cs.cmu.edu/tools/ for more information

The (fixed) discount mass is 0.5. The backoffs are computed using the ratio method.
This model based on a corpus of 6 sentences and 47 words

\data\
ngram 1=47
ngram 2=60
ngram 3=56

\1-grams:
-2.1399 "'TIS -0.2947
-2.1399 "TAPPING -0.2947
-1.3617 </s> -0.3010
-1.3617 <s> -0.2784
-1.6628 A -0.2915
-1.6628 AND -0.2915
-2.1399 AS -0.2947
-1.8388 AT -0.2947
-2.1399 CAME -0.2915
-1.8388 CHAMBER -0.2947
-2.1399 CURIOUS -0.2979
-2.1399 DOOR-- -0.2817
-2.1399 DOOR. -0.2817
-2.1399 DREARY, -0.2947
-2.1399 FORGOTTEN -0.2979
-2.1399 GENTLY -0.2979
-1.6628 I -0.2915
-2.1399 LORE-- -0.2817
-2.1399 MANY -0.2915
-2.1399 MIDNIGHT -0.2979
-2.1399 MORE." -0.2817
-2.1399 MUTTERED, -0.2979
-1.8388 MY -0.2947
-2.1399 NAPPING, -0.2979
-2.1399 NEARLY -0.2979
-2.1399 NODDED, -0.2979
-2.1399 NOTHING -0.2979
-1.8388 OF -0.2915
-2.1399 ONCE -0.2979
-2.1399 ONE -0.2979
-2.1399 ONLY -0.2979
-2.1399 OVER -0.2979
-2.1399 PONDERED, -0.2979
-2.1399 QUAINT -0.2915
-2.1399 RAPPING -0.2947
-2.1399 RAPPING, -0.2979
-1.8388 SOME -0.2947
-2.1399 SUDDENLY -0.2979
-2.1399 TAPPING, -0.2817
-2.1399 THERE -0.2979
-2.1399 THIS -0.2915
-2.1399 UPON -0.2915
-2.1399 VISITER," -0.2915
-2.1399 VOLUME -0.2947
-2.1399 WEAK -0.2915
-2.1399 WEARY, -0.2817
-1.8388 WHILE -0.2915

\2-grams:
-0.3010 "'TIS SOME -0.1761
-0.3010 "TAPPING AT 0.0000
-1.0792 <s> "'TIS 0.0000
-1.0792 <s> AS 0.0000
-1.0792 <s> ONCE 0.0000
-1.0792 <s> ONLY 0.0000
-1.0792 <s> OVER 0.0000
-1.0792 <s> WHILE 0.0000
-0.7782 A MIDNIGHT 0.0000
-0.7782 A QUAINT 0.0000
-0.7782 A TAPPING, 0.0000
-0.7782 AND CURIOUS 0.0000
-0.7782 AND NOTHING 0.0000
-0.7782 AND WEARY, 0.0000
-0.3010 AS OF -0.1761
-0.3010 AT MY 0.0000
-0.3010 CAME A -0.2218
-0.6021 CHAMBER DOOR-- 0.0000
-0.6021 CHAMBER DOOR. 0.0000
-0.3010 CURIOUS VOLUME 0.0000
-0.3010 DOOR-- </s> -0.3010
-0.3010 DOOR. </s> -0.3010
-0.3010 DREARY, WHILE 0.0000
-0.3010 FORGOTTEN LORE-- 0.0000
-0.3010 GENTLY RAPPING, 0.0000
-0.7782 I MUTTERED, 0.0000
-0.7782 I NODDED, 0.0000
-0.7782 I PONDERED, 0.0000
-0.3010 LORE-- </s> -0.3010
-0.3010 MANY A -0.2218
-0.3010 MIDNIGHT DREARY, 0.0000
-0.3010 MORE." </s> -0.3010
-0.3010 MUTTERED, "TAPPING 0.0000
-0.3010 MY CHAMBER 0.0000
-0.3010 NAPPING, SUDDENLY 0.0000
-0.3010 NEARLY NAPPING, 0.0000
-0.3010 NODDED, NEARLY 0.0000
-0.3010 NOTHING MORE." 0.0000
-0.6021 OF FORGOTTEN 0.0000
-0.6021 OF SOME -0.1761
-0.3010 ONCE UPON 0.0000
-0.3010 ONE GENTLY 0.0000
-0.3010 ONLY THIS 0.0000
-0.3010 OVER MANY 0.0000
-0.3010 PONDERED, WEAK 0.0000
-0.3010 QUAINT AND -0.2218
-0.3010 RAPPING AT 0.0000
-0.3010 RAPPING, RAPPING 0.0000
-0.6021 SOME ONE 0.0000
-0.6021 SOME VISITER," 0.0000
-0.3010 SUDDENLY THERE 0.0000
-0.3010 TAPPING, </s> -0.3010
-0.3010 THERE CAME 0.0000
-0.3010 THIS AND -0.2218
-0.3010 UPON A -0.2218
-0.3010 VISITER," I -0.2218
-0.3010 VOLUME OF -0.1761
-0.3010 WEAK AND -0.2218
-0.3010 WEARY, </s> -0.3010
-0.3010 WHILE I -0.1249

\3-grams:
-0.3010 "'TIS SOME VISITER,"
-0.3010 "TAPPING AT MY
-0.3010 <s> "'TIS SOME
-0.3010 <s> AS OF
-0.3010 <s> ONCE UPON
-0.3010 <s> ONLY THIS
-0.3010 <s> OVER MANY
-0.3010 <s> WHILE I
-0.3010 A MIDNIGHT DREARY,
-0.3010 A QUAINT AND
-0.3010 A TAPPING, </s>
-0.3010 AND CURIOUS VOLUME
-0.3010 AND NOTHING MORE."
-0.3010 AND WEARY, </s>
-0.3010 AS OF SOME
-0.3010 AT MY CHAMBER
-0.3010 CAME A TAPPING,
-0.3010 CHAMBER DOOR-- </s>
-0.3010 CHAMBER DOOR. </s>
-0.3010 CURIOUS VOLUME OF
-0.3010 DREARY, WHILE I
-0.3010 FORGOTTEN LORE-- </s>
-0.3010 GENTLY RAPPING, RAPPING
-0.3010 I MUTTERED, "TAPPING
-0.3010 I NODDED, NEARLY
-0.3010 I PONDERED, WEAK
-0.3010 MANY A QUAINT
-0.3010 MIDNIGHT DREARY, WHILE
-0.3010 MUTTERED, "TAPPING AT
-0.6021 MY CHAMBER DOOR--
-0.6021 MY CHAMBER DOOR.
-0.3010 NAPPING, SUDDENLY THERE
-0.3010 NEARLY NAPPING, SUDDENLY
-0.3010 NODDED, NEARLY NAPPING,
-0.3010 NOTHING MORE." </s>
-0.3010 OF FORGOTTEN LORE--
-0.3010 OF SOME ONE
-0.3010 ONCE UPON A
-0.3010 ONE GENTLY RAPPING,
-0.3010 ONLY THIS AND
-0.3010 OVER MANY A
-0.3010 PONDERED, WEAK AND
-0.3010 QUAINT AND CURIOUS
-0.3010 RAPPING AT MY
-0.3010 RAPPING, RAPPING AT
-0.3010 SOME ONE GENTLY
-0.3010 SOME VISITER," I
-0.3010 SUDDENLY THERE CAME
-0.3010 THERE CAME A
-0.3010 THIS AND NOTHING
-0.3010 UPON A MIDNIGHT
-0.3010 VISITER," I MUTTERED,
-0.3010 VOLUME OF FORGOTTEN
-0.3010 WEAK AND WEARY,
-0.6021 WHILE I NODDED,
-0.6021 WHILE I PONDERED,

\end\
